<?xml version="1.0"?>
<opencv_storage>
<opencv_ml_ann_mlp>
  <format>3</format>
  <layer_sizes>
    20 8 7</layer_sizes>
  <activation_function>SIGMOID_SYM</activation_function>
  <f_param1>1.</f_param1>
  <f_param2>1.</f_param2>
  <min_val>-9.4999999999999996e-01</min_val>
  <max_val>9.4999999999999996e-01</max_val>
  <min_val1>-9.7999999999999998e-01</min_val1>
  <max_val1>9.7999999999999998e-01</max_val1>
  <training_params>
    <train_method>BACKPROP</train_method>
    <dw_scale>1.0000000000000001e-01</dw_scale>
    <moment_scale>0.</moment_scale>
    <term_criteria>
      <epsilon>2.</epsilon>
      <iterations>1</iterations></term_criteria></training_params>
  <input_scale>
    3.6752219499262242e+02 -1.3990656552004375e+00
    3.5048522814939304e+02 -1.1097873942814556e+00
    2.0829465169232938e+02 -1.5759282496163878e+00
    2.4895264410256286e+02 -9.7307023044073959e-01
    1.4234536516803757e+02 -1.3229956751379981e+00
    1.5025140490405170e+02 -8.7295600624151048e-01
    6.9400357945880614e+01 -1.8482072347581351e+00
    5.8981544495542600e+01 -7.3012342304022337e-01
    2.5198766634537815e+01 -1.2626627711351763e+00
    3.9137159016641704e+01 -6.9587272104730935e-01
    5.4710763302870760e+00 -1.2126066429713072e+00
    1.4212765400660455e+01 -6.5481028171409850e-01
    2.6752563196849504e+01 -1.5811214628455683e+00
    7.9630721225222231e+01 -7.6508355626301239e-01
    9.3753660350552721e+01 -1.2159299279682194e+00
    1.6459584266206429e+02 -8.9189707166561982e-01
    1.5249311503882996e+02 -1.3835248876294475e+00
    2.6479716032079421e+02 -1.0137050630919222e+00
    3.5175608075504101e+02 -1.3117650121299449e+00
    4.8259531071741702e+02 -1.2229370926480136e+00</input_scale>
  <output_scale>
    5.2631578947368418e-01 4.9999999999999994e-01 5.2631578947368418e-01
    4.9999999999999994e-01 5.2631578947368418e-01 4.9999999999999994e-01
    5.2631578947368418e-01 4.9999999999999994e-01 5.2631578947368418e-01
    4.9999999999999994e-01 5.2631578947368418e-01 4.9999999999999994e-01
    5.2631578947368418e-01 4.9999999999999994e-01</output_scale>
  <inv_output_scale>
    1.8999999999999999e+00 -9.4999999999999996e-01
    1.8999999999999999e+00 -9.4999999999999996e-01
    1.8999999999999999e+00 -9.4999999999999996e-01
    1.8999999999999999e+00 -9.4999999999999996e-01
    1.8999999999999999e+00 -9.4999999999999996e-01
    1.8999999999999999e+00 -9.4999999999999996e-01
    1.8999999999999999e+00 -9.4999999999999996e-01</inv_output_scale>
  <weights>
    <_>
      -2.2961962696692435e-02 -6.0453580361248827e-01
      5.6397814904187460e-01 -3.2914070809491092e-01
      -7.4646636116128151e-02 2.0360144025760210e-01
      3.6597351719688137e-01 -1.0534772582494851e+00
      -7.7734978968211341e-02 -1.1686102881779645e-01
      -7.5175268728208722e-01 9.2402494918877087e-02
      3.1125814868886875e-01 -1.5547176552967984e-01
      -1.5093237106956972e-01 -1.2684260261638175e-01
      6.4835168862797432e-01 -4.2082854053892566e-01
      -9.3068942318160791e-02 -1.4280063361424208e-01
      -4.5275446101896510e-01 -4.0568495534240856e-01
      -6.7383549712985547e-01 -1.3949384534249967e+00
      -4.0311427347526596e-01 6.3707566313498964e-01
      -1.2633970384902691e+00 1.8070043832117549e-01
      3.5699433410710951e-01 1.1090721791812069e-01
      -3.3330631613746170e-01 -7.1617531636263865e-01
      -5.6429600275868619e-01 -6.2978221598702699e-01
      -4.3689943277145005e-01 -1.5044650759233458e-01
      -4.3119059941447341e-01 1.3317496252758605e+00
      5.5105112656626054e-01 5.5263229342649700e-01
      -1.2054606836988477e+00 4.5917391254044698e-01
      -1.1449427306079603e+00 6.0351745269833301e-01
      5.2344693311595869e-01 1.6708710064901018e+00
      2.2339018152538453e-01 -1.7283227363413922e+00
      4.8021109557336278e-01 -7.8691920809062055e-01
      -1.0267895315256605e+00 -2.3144822583231900e-01
      -8.5093788610930488e-01 -9.7080561898175188e-01
      -9.7865199879046749e-01 4.0500433237633571e-01
      -4.5080235797089696e-01 1.8794229959811506e+00
      -3.4255045747671309e-01 1.1130269700407842e+00
      2.0565902857938307e+00 -5.9670240816326135e-03
      -3.0454146177236618e-01 -4.7743388604378356e-01
      -6.0783468284820763e-01 -6.2301823583873828e-01
      -7.0632524769841343e-01 -2.3029162192061832e+00
      -1.7346290538427359e-01 3.4095716219428480e+00
      3.1272027305030675e-01 3.8525988707180678e+00
      1.2258818055665803e+00 -5.0468902987630448e-01
      -2.6385542605712364e-02 9.3972926871963358e-01
      1.2956964793151993e+00 -1.9897426421879603e+00
      1.8503538733630971e+00 1.5740540197349295e+00
      -1.5037940221094406e+00 4.6556081476208195e+00
      4.0832790297544980e-01 6.1003962214614516e-01
      1.1172429289932648e+00 -2.4033265730580498e+00
      3.2434477532887627e+00 4.9395179708204551e-01
      2.6779984290923688e+00 -1.0377860173839704e+00
      3.2975300207005293e-01 1.4184789851223869e+00
      2.7130826967872714e+00 -1.9068693198017581e+00
      -1.0640307286698762e+00 2.6385730435148016e+00
      -1.4219445439097924e+00 2.6566699996682668e+00
      -1.1046339512842649e+00 -1.1408549707826410e+00
      2.7848544137388542e-01 6.7359467211280988e-01
      -1.1754655037343116e-01 -2.2721774848209919e+00
      6.4970601544801454e-01 -1.5169959426908937e+00
      -1.2138210175349460e+00 -9.6574968416023588e-03
      5.2200608793755175e-02 -1.1738587582768061e+00
      3.8397005354185998e-01 1.3690228169293187e-01
      -9.1614937604223512e-01 -1.9544815576066341e+00
      -5.1589634794371242e-01 1.2461724648518773e+00
      6.3389008753406773e-01 9.7642194136000859e-01
      4.0334845017470483e-01 6.0746815186771352e-01
      2.6731826945142712e-01 4.3765605869818974e-01
      -1.5499597302191404e+00 5.5072809032448089e-01
      5.7817492003624749e-01 4.7614314690158471e-01
      -5.1151403952097430e-01 -8.6704027177208509e-01
      -1.0948725196365261e+00 -9.8164833085988046e-01
      -1.7688256480548905e+00 -1.1626845236590677e+00
      -8.8604272339796386e-01 -1.1662893780278387e+00
      1.3887334628526818e-01 -1.1123420663234249e-03
      -5.4219458050345826e-01 2.8051240838328406e-01
      -1.4751018185981299e+00 -1.1837908422067436e-01
      -2.1066734434291670e-01 -2.2650312595953120e-01
      -2.2917108698437633e-01 -4.4903970053965497e-01
      -4.7232801296314825e-01 -4.6456922243522207e-03
      -1.8249350984353745e+00 -4.7608740777563933e-02
      -2.7430299926917173e-01 4.1079435295286382e-01
      -7.4560239160047280e-05 2.5100183818342692e-01
      -4.8714929695645232e-01 4.6492621463074518e-01
      -8.5591061831399473e-01 2.4806090546160700e-01
      1.6291158405821279e-01 6.2736921301004056e-01
      -2.1698917464554596e-01 1.4894196281434746e-01
      1.5166955785094016e+00 9.1655930771546623e-01
      -3.3786472372037242e+00 3.2504755820397296e-01
      -6.6241641151925434e-01 7.2908772225805396e-05
      4.7894716165762414e+00 -1.2699572851017720e+00</_>
    <_>
      5.8483897060268575e-01 -1.0981505817144483e+00
      -7.9819965489290490e-01 1.2059943087718294e+00
      5.4750653609167133e-01 -1.2764272213053729e+00
      -1.6350733127176593e+00 -5.8344139267582606e-01
      -6.8884434332215239e-01 8.9785480373022453e-01
      1.3898294440653132e+00 -1.5654712892700997e+00
      -2.9606826329370559e+00 2.1351135394218592e+00
      -9.9545230795526823e-02 3.3877816537347201e+00
      -7.5489272817763586e-01 2.6888385463275695e+00
      -2.0621615909644100e-01 -1.9792189036901326e+00
      2.3344523856965679e-01 6.4033663639779481e-01
      2.5279206978542201e+00 1.7607654029940791e+00
      -2.7000917216383863e-01 -1.6746601388581557e+00
      -1.3035036693253501e+00 -5.7704985734485936e-01
      6.9299223316838077e-01 -6.5127739953244279e-01
      2.5847026535231898e+00 3.4438195893617146e-01
      -9.0631967047916845e-02 -1.3614227529989138e+00
      -1.8190343172087049e+00 -2.0924765094781126e+00
      -1.2028594832965342e+00 1.7339511805458050e+00
      1.8153480365091494e+00 -5.1192506459431486e-01
      2.4484840721493701e+00 -2.6039975174422354e+00
      -6.7834011163156116e-01 -5.7573335987884589e-01
      -1.9424615596968551e+00 -1.2420104054509895e+00
      -3.9134693998370467e+00 -2.0708976470774565e-01
      2.0543671509313839e+00 3.0523516555393795e+00
      -1.7444843808621751e+00 -2.5470705409997683e+00
      2.2620629845468083e+00 3.9698734217212778e-01
      1.3549853430203902e+00 -1.6914537634407543e+00
      -2.7586333823520470e+00 -2.5623751657963054e+00
      -1.5786937560130927e+00 -3.3452141285117527e+00
      -2.5396020529466341e+00 -4.0711718356027795e+00
      -6.0213266601849931e+00</_></weights></opencv_ml_ann_mlp>
</opencv_storage>
