<?xml version="1.0"?>
<opencv_storage>
<opencv_ml_ann_mlp>
  <format>3</format>
  <layer_sizes>
    20 9 7</layer_sizes>
  <activation_function>SIGMOID_SYM</activation_function>
  <f_param1>1.</f_param1>
  <f_param2>1.</f_param2>
  <min_val>-9.4999999999999996e-01</min_val>
  <max_val>9.4999999999999996e-01</max_val>
  <min_val1>-9.7999999999999998e-01</min_val1>
  <max_val1>9.7999999999999998e-01</max_val1>
  <training_params>
    <train_method>BACKPROP</train_method>
    <dw_scale>1.0000000000000001e-01</dw_scale>
    <moment_scale>0.</moment_scale>
    <term_criteria>
      <epsilon>1.1920928955078125e-07</epsilon>
      <iterations>300</iterations></term_criteria></training_params>
  <input_scale>
    3.5400734523877605e+02 -1.3789828620879903e+00
    3.3061705321286479e+02 -1.0878201329619779e+00
    2.0403242148026527e+02 -1.5498390065018650e+00
    2.3254977113095367e+02 -9.5393721231624595e-01
    1.4053653643846485e+02 -1.3200388867531623e+00
    1.4208891723538764e+02 -8.6880611999506119e-01
    6.8243361492337257e+01 -1.8165944393637603e+00
    5.7772460853980633e+01 -7.3268788223299863e-01
    2.5365358082868735e+01 -1.2703121982780423e+00
    3.8172959441548528e+01 -6.8467417871034797e-01
    5.5900709103390609e+00 -1.2163630545424535e+00
    1.4332119958445642e+01 -6.5911157901453088e-01
    2.7060542428648525e+01 -1.5769462311340008e+00
    7.8792469056947368e+01 -7.6228856911636167e-01
    9.5244611200681419e+01 -1.2058666986933377e+00
    1.6363617646270646e+02 -9.0026783646215669e-01
    1.5379369423460830e+02 -1.3504195586962755e+00
    2.6019071775693118e+02 -1.0137640067526974e+00
    3.3754017371755998e+02 -1.2557783406244629e+00
    4.4986209564899872e+02 -1.1696817582167953e+00</input_scale>
  <output_scale>
    5.2631578947368418e-01 4.9999999999999994e-01 5.2631578947368418e-01
    4.9999999999999994e-01 5.2631578947368418e-01 4.9999999999999994e-01
    5.2631578947368418e-01 4.9999999999999994e-01 5.2631578947368418e-01
    4.9999999999999994e-01 5.2631578947368418e-01 4.9999999999999994e-01
    5.2631578947368418e-01 4.9999999999999994e-01</output_scale>
  <inv_output_scale>
    1.8999999999999999e+00 -9.4999999999999996e-01
    1.8999999999999999e+00 -9.4999999999999996e-01
    1.8999999999999999e+00 -9.4999999999999996e-01
    1.8999999999999999e+00 -9.4999999999999996e-01
    1.8999999999999999e+00 -9.4999999999999996e-01
    1.8999999999999999e+00 -9.4999999999999996e-01
    1.8999999999999999e+00 -9.4999999999999996e-01</inv_output_scale>
  <weights>
    <_>
      -8.6150693927119237e-01 -1.6509747280996019e+00
      -3.0596187735799778e+00 -2.3446930664965671e-01
      9.6589313855112002e-01 8.8122661659217405e-01
      -1.1660641634690563e+00 1.5828107106111991e-01
      9.9623943033217647e-03 -7.2034671713331311e-01
      -2.1703002926090070e-01 1.7175469437048616e+00
      3.4468245695141198e+00 1.3713590127413959e+00
      -9.1922130050264683e-01 4.2311331683210868e-01
      -7.4197218134766496e-01 -5.0553327893177991e-01
      -1.4893330764706422e-01 -6.1851624872284949e+00
      -7.0637388056703587e-01 -5.8375361155748517e-01
      5.7661074374573240e-01 -9.0584742437326071e-01
      6.6221285955839881e-01 2.5065252641396452e-01
      -5.8426598129842022e-01 9.1478169195424119e-01
      -7.1137336831496267e-01 6.4582520117280406e-01
      -1.9853447852010106e-01 4.7873056693797211e-01
      -1.1902242686187119e+00 1.8508254278420719e-01
      -5.3468086622018030e+00 7.0851608734696048e-01
      -2.6684372674994301e+00 -4.5339772884323493e+00
      6.4526593102279861e+00 -4.9682238662398515e+00
      7.7304093286645059e-01 1.0821139388869638e+00
      2.5355424280312269e+00 -1.1991576456428457e+00
      -7.7524261915387849e-01 -3.0777453521968408e+00
      -1.1705356855452069e+00 1.1866797856481849e+01
      -1.4222480845042462e+00 -2.4479029277148272e+00
      -1.0166016499227184e+00 2.0700427431206347e+00
      -7.2692485293557363e+00 5.1935357685415984e-01
      4.8650185612749102e+00 -2.8898347022274744e+00
      -1.4689316715101976e+01 -4.6066727839670971e+00
      8.8258615651831391e+00 1.1716846279040589e+00
      3.1193900880249670e+00 5.3365164521545552e+00
      6.5582903160192677e-03 4.8693996608014191e-02
      2.2002304869029423e+00 -6.0463027697369505e+00
      1.0863269828014712e+01 -1.2325249394663593e+00
      -5.8449213473457604e+00 -5.7714344775200992e+00
      -4.5676448841186854e+00 4.2679424094030587e+00
      -6.6937682019868667e+00 -2.2717823972058973e+01
      1.6874165245436529e+01 -6.5908673996898299e+00
      1.5481380507290691e+01 2.3788753215366141e+00
      -8.5297591588465771e+00 1.6613973630766323e+00
      -1.6225330194714033e+01 -3.6709274515666590e+00
      3.2925404674378398e+00 -1.4399421911117217e+01
      -5.7488309485356686e+00 -1.4687920934708961e+01
      1.1975320973759555e+01 -8.4647949933358770e+00
      9.1815112527971863e+00 -2.7055997236614369e+00
      -1.7175768306960396e+01 4.2201733308922833e+01
      -2.3504791807058258e+00 1.0504924609766492e+01
      1.2605934444810751e+01 -5.0395055974385583e+00
      -1.6750200806754311e+01 7.6175567147273062e+00
      -4.2359473712172118e+01 9.4782077535304001e+00
      5.6549230658963348e+00 -2.2707930811171803e+01
      -5.6731050810105250e+00 2.9312074917441077e+01
      -6.3043565196465316e+01 -1.1952787910040618e+01
      1.9721795898058986e+01 2.1140684654937065e+01
      9.5019412019657157e-01 3.8774233623766614e+00
      -1.9907002078229477e+00 1.8190962937515909e+01
      1.8179563320635364e+01 -3.2992686500718547e+00
      1.6383032111126166e+01 -2.6367641185775103e+01
      -3.5874955531943340e+00 -1.8035025250200576e+00
      -1.7970668394796909e+00 -1.7572230911038137e+01
      -3.3039862423164963e+00 -2.3807806867937744e+00
      -1.2965227547235367e+00 -1.0439191345167813e+00
      -3.1725307546581942e+00 -6.6318630958244584e-01
      4.6685536850397169e-01 -9.5734932654377634e+00
      1.1512092373816925e+01 -7.0429949630461470e+00
      -5.6631930381336559e-01 -2.0015638211779785e+00
      -3.9444293772369199e-01 -4.3081491444085698e+00
      -8.4929312578096472e-01 6.3904045699904344e-01
      -7.1382801197720636e-01 1.1874053940283408e-01
      -3.9897102685307761e-01 -2.2938570470480362e+00
      3.0558742629706943e+00 -2.1793463113873628e+00
      -4.3246297526173754e+00 -2.5612928399236018e-03
      1.6866240055435946e+00 -3.5768997174284542e-02
      -1.7945362571869909e+00 -5.8849278510311842e-01
      -1.1215288569491861e+00 3.9632204140694935e+00
      -1.7234530104902552e+00 4.8063198085849090e-01
      7.2666478828524894e-01 7.0056089660761089e-01
      -2.2173611888072320e+00 6.6028424735198210e-01
      -4.3547579653319651e-02 -7.8760747383658991e-01
      1.8581211640714730e+00 -1.1583152032129931e-01
      -6.0996689445593821e-01 -3.6873929843791553e-01
      -7.7365151974699425e-02 -1.4540956865089698e+00
      1.1036152878204832e+00 -2.0428059189067866e+00
      -3.2597298128015967e-01 1.0010743985127875e+00
      -1.0052620997363801e+00 4.3029100551452149e-01
      -9.9195730652129166e-01 -4.1128372411686201e-03
      -9.4599276377784225e-01 3.6955500061744079e-01
      -1.5556073258595404e+00 -5.1521016126297903e-01
      1.0029722274156858e+00 1.0037984918433667e+00
      -6.4582767086617265e-01 5.2976413934548335e-02
      -2.8303044421502680e+01 1.8823512715714742e+01
      1.3371283400105526e+01 -2.7292159165512406e+00
      6.0819113101765625e+00 -7.3148546948071527e+00
      3.2319290066068852e+01 -9.1708581979048756e+00
      -3.6383985266738563e+01</_>
    <_>
      -1.9926304925996473e-02 -2.9211171658812352e-01
      -9.8255847988656317e-02 3.6948245282480157e+00
      -1.0161640870590356e+00 1.3755079718318792e+00
      2.3835252663523780e+00 1.6014863236423309e-02
      3.3425321300463073e+00 8.1588011592730467e+00
      2.9084381828909649e+00 -3.1939583590488563e+00
      -5.3758134769222066e-01 2.0920786335464761e+00
      1.3307319755806174e-01 -6.5520803468241559e-02
      5.3654734152213610e+00 -1.2940599522232044e-01
      2.8840690530958418e-01 -3.4226953895467382e-01
      -3.9322861037847558e+00 -4.6747842751577001e-01
      2.5825950450060384e+00 2.9230157649184769e+00
      -5.4665656583233113e-01 -7.1892545498092109e-01
      5.9336657406132431e-01 -3.8455985799759089e+00
      3.4314106308058635e-03 2.9295013309136794e-03
      -5.7591016531713644e+00 -1.1648677425702494e-01
      2.0061802551138044e-01 -7.2961815891946155e-02
      5.9475859378800049e+00 3.5177819392656602e+00
      3.6125219787247085e+00 -1.6960795289964430e+01
      2.2841130966955547e-01 3.7114268739263387e+00
      3.4684416995953331e+00 3.5597240135012481e-01
      8.4094285235129286e-04 1.6786457812193842e-01
      5.7533846758996656e+00 3.5394727262893650e+00
      -3.6184837319438716e+00 -3.2767933611625794e-01
      3.2880569899033631e-02 3.0339176220067308e+00
      -9.6278644642984668e-01 -2.8191745171227103e+00
      3.0536340100091794e+00 -3.0750435511912022e-01
      -1.3997297333576098e+00 3.1043267261000507e+00
      3.6597796454229434e+00 -3.2406094276835788e+00
      -1.2494908958025687e-01 -3.6946709882561080e+00
      -1.5770080059203866e+00 1.7159410945741758e+00
      9.9298855620838378e-01 -7.1871535047820982e+00
      -1.0880422494566682e+01 -6.0885592397207535e+00
      -6.6305335728650405e+00 -3.7097295152809524e+00
      -4.6543601442808145e+00 -1.1939365373820563e+01</_></weights></opencv_ml_ann_mlp>
</opencv_storage>
