<?xml version="1.0"?>
<opencv_storage>
<opencv_ml_ann_mlp>
  <format>3</format>
  <layer_sizes>
    20 8 7</layer_sizes>
  <activation_function>SIGMOID_SYM</activation_function>
  <f_param1>1.</f_param1>
  <f_param2>1.</f_param2>
  <min_val>-9.4999999999999996e-01</min_val>
  <max_val>9.4999999999999996e-01</max_val>
  <min_val1>-9.7999999999999998e-01</min_val1>
  <max_val1>9.7999999999999998e-01</max_val1>
  <training_params>
    <train_method>BACKPROP</train_method>
    <dw_scale>1.0000000000000001e-01</dw_scale>
    <moment_scale>0.</moment_scale>
    <term_criteria>
      <epsilon>2.</epsilon>
      <iterations>1</iterations></term_criteria></training_params>
  <input_scale>
    3.6719192794423554e+02 -1.3975933845788786e+00
    3.5039271697195034e+02 -1.1110755107566337e+00
    2.0820589019637427e+02 -1.5736451469241679e+00
    2.4884885532641937e+02 -9.7416270232815794e-01
    1.4285327396606860e+02 -1.3232629688159077e+00
    1.5018482137229805e+02 -8.7418553675002386e-01
    6.9554193365482135e+01 -1.8485536327107375e+00
    5.8947867592898561e+01 -7.3116348887609639e-01
    2.5298370190402046e+01 -1.2630113769923990e+00
    3.9113118966582462e+01 -6.9683759502372489e-01
    5.4991517387106370e+00 -1.2136687514773887e+00
    1.4203852300410755e+01 -6.5577598117511204e-01
    2.6743167941170316e+01 -1.5823194815792057e+00
    7.9587427673644058e+01 -7.6615883204489332e-01
    9.3699963245614981e+01 -1.2166786366809790e+00
    1.6452447354028342e+02 -8.9312414231105242e-01
    1.5234189616674951e+02 -1.3817405032436441e+00
    2.6469670460777252e+02 -1.0148909564351054e+00
    3.5282216454420552e+02 -1.3116051934188595e+00
    4.8257819471618865e+02 -1.2246211042301409e+00</input_scale>
  <output_scale>
    5.2631578947368418e-01 4.9999999999999994e-01 5.2631578947368418e-01
    4.9999999999999994e-01 5.2631578947368418e-01 4.9999999999999994e-01
    5.2631578947368418e-01 4.9999999999999994e-01 5.2631578947368418e-01
    4.9999999999999994e-01 5.2631578947368418e-01 4.9999999999999994e-01
    5.2631578947368418e-01 4.9999999999999994e-01</output_scale>
  <inv_output_scale>
    1.8999999999999999e+00 -9.4999999999999996e-01
    1.8999999999999999e+00 -9.4999999999999996e-01
    1.8999999999999999e+00 -9.4999999999999996e-01
    1.8999999999999999e+00 -9.4999999999999996e-01
    1.8999999999999999e+00 -9.4999999999999996e-01
    1.8999999999999999e+00 -9.4999999999999996e-01
    1.8999999999999999e+00 -9.4999999999999996e-01</inv_output_scale>
  <weights>
    <_>
      -3.6074208370901156e-01 -7.1010558775879296e-01
      5.0303238311997650e-02 -1.0427049178774915e-01
      -4.1785594096944978e-01 1.9994255162333291e-01
      3.3288325971668725e-01 -1.9023203205403383e-01
      -1.4633308923749347e-01 2.8900283869004673e-01
      -1.2632828870055184e+00 -2.6612288030297360e-01
      2.3987454060696807e-02 2.7695731648632249e-01
      -3.4303392809093247e-01 -1.4783927553496323e-01
      4.2274616496310191e-01 -9.1571982498914029e-01
      -1.5464820289573472e-02 -9.6789004575958057e-02
      -5.0298349027420408e-01 -5.8692112497357940e-01
      -1.0349834715757182e+00 -9.4560812988244991e-01
      -7.0652312586823784e-01 8.5909937818866022e-03
      -9.5769563753188802e-01 -5.0829427804141902e-01
      7.8331824313616100e-02 -1.2533427879128642e-01
      -7.1236324784875982e-01 -6.3192629355823016e-01
      -5.4041753035218826e-02 -8.0929468522398240e-01
      -4.9831626969532794e-01 -1.4214872057054018e-01
      -3.8897363375546734e-01 1.1343683857878744e+00
      9.3532826350410381e-01 1.0114052696659861e+00
      -1.0489002828341694e+00 3.5554230437143364e-01
      -1.1452523549543872e+00 2.3368496783215484e-01
      3.0623725326854473e-01 1.3985473736096850e+00
      -1.4078660609889879e-01 -2.1178809759332564e+00
      1.0953728700912269e+00 -1.6770476068739038e-01
      1.4304098657656952e-01 -3.4572187987126285e-01
      -6.5853383479646421e-01 -1.4589757866564363e+00
      -4.3151221440167958e-01 8.7741393702493209e-01
      -6.9022789606937951e-01 2.0435202708994651e+00
      -1.1968664400311613e+00 -2.4565231469299059e-01
      1.5287484242323857e+00 -3.2257030963046301e-01
      -8.0388989010942336e-01 -2.7720656908397845e-01
      6.5931803687733959e-01 1.6642146462193314e-01
      -1.9799586230105781e+00 -1.4681223855281653e+00
      -4.0395909862342155e-01 3.6644465820937153e+00
      4.5603684122084592e-01 3.9006956245495839e+00
      4.7382357648553669e-01 1.2797810348047296e+00
      -4.0667832461173731e-01 8.3316085177622212e-01
      8.7220770901167899e-01 -1.9403202946893188e+00
      1.9663964184539899e+00 1.3174841691476491e+00
      -1.5441352249541846e+00 5.4652011777387335e+00
      -3.6392020193228453e-01 3.9202797597652966e-01
      6.4494028129503056e-01 -1.8692209343781483e+00
      2.1167185941009272e+00 -4.7310451284654614e-01
      1.9549939664476157e+00 3.8346057730960426e-01
      -1.0292192200083647e+00 -1.1134821543464118e-01
      2.4656200274276054e+00 -1.7637898880523248e+00
      -5.3993153443503961e-01 3.1873284784804188e+00
      -2.4516297447814415e+00 1.0143752897236709e+00
      1.5508305677904619e+00 -1.1945378749655740e+00
      2.6099450397602780e-01 9.9003717879299136e-01
      -9.2413766147729981e-01 -2.9879434181682214e+00
      7.2203273971741389e-01 -7.0568130374958493e-01
      -1.8058666733447111e+00 1.6577470523285037e-02
      -1.4499436654975287e-01 -1.0569222191959344e+00
      5.2316305647657568e-01 8.8030690712771176e-01
      -5.2164409579934934e-01 -1.6999376854750152e+00
      -1.1874275761765363e+00 -4.5544820736040492e-01
      1.6322276015995724e-01 1.0328305965313274e+00
      7.1071617992539116e-01 8.1102653992419615e-02
      5.2272665548241344e-02 2.6197490094298853e-01
      -1.7531809064737862e+00 -3.3122923168066215e-01
      1.2052663903563525e-01 -9.2796928585458238e-02
      -1.0386637615389853e+00 -1.1872077016941225e+00
      5.7775303465592245e-02 -2.3315841492302095e-01
      -8.7379982286415692e-01 -6.9164403638173977e-01
      -1.6043990288254486e+00 -5.9476296665582495e-01
      7.5364364341759249e-02 7.2415032866784945e-01
      -3.1510509787121743e-01 4.0806436806984242e-01
      -1.2679231678295599e+00 -3.2352024318855305e-01
      -3.3852093901139174e-01 4.1243509564668818e-01
      5.5135579422144879e-02 -8.0115316984231122e-01
      4.2052928290134878e-02 1.2382406260569835e-02
      -7.3872261894399849e-01 -5.7019702384447792e-02
      -5.0875396527056571e-01 1.6962846919857086e-01
      -1.1118023348747164e-02 9.7755060572411623e-02
      -2.2894319030490939e-01 2.3863176957220825e-01
      -9.8053946471312892e-01 -4.2508735830201233e-02
      -4.4512089933581214e-03 2.9289808017854541e-01
      2.2471716204382194e-02 3.5131296918819871e-01
      1.2204480583523942e+00 3.8411353032461357e+00
      -2.0359118302593870e-01 -2.4252213016285231e+00
      1.1479223275059356e+00 -1.8744871594940907e-01
      3.6473153599601589e+00 -1.1030470944568667e+00</_>
    <_>
      3.7241026026787410e-01 -1.6422082777753662e+00
      -1.6010638584732200e+00 9.5472042482276587e-01
      5.1979171743139307e-01 1.9866162421177971e-01
      -2.1705670590171198e+00 -7.9810643480444321e-01
      -1.2525394093904549e+00 1.7351445693834218e+00
      1.6422390577486574e+00 -3.0402278335597654e+00
      -4.5329574214941601e+00 2.8664099579681039e+00
      -1.0628273292218209e+00 6.9079118217726776e-01
      -1.7013596220758120e+00 2.5965006979771590e+00
      2.5100455793219273e-01 -2.4375478014406062e+00
      1.6021798264141509e+00 1.0706120622976774e-01
      4.2713531823364015e+00 1.7669192506075728e+00
      1.6646194452489080e+00 -6.6174560665557225e-01
      -9.0080406401890833e-01 1.5622979653722506e+00
      6.9593201030467622e-01 1.7808775824515227e-01
      2.6812586242037248e+00 4.4399588488113662e-01
      -7.5038007628071213e-01 -1.6639116271068723e+00
      -2.6809066928194571e+00 -2.7119421219940656e+00
      -1.6125557045724301e+00 1.3240446035673850e+00
      2.2721672306203242e+00 -5.7604299218975796e-01
      1.9405321287153035e+00 -1.8177196054179423e+00
      -2.0049277928018017e-01 1.2905691940089209e-01
      -1.9944980861326891e+00 -1.8634349658193821e+00
      -3.0389044497691016e+00 6.5852535673398283e-01
      1.3858962705478914e+00 3.0990185301520938e+00
      -1.7439396538429064e+00 -1.7676500561315183e+00
      2.1372194368147182e+00 6.2189763349199612e-01
      1.8982905629216740e+00 -1.0443375456173627e+00
      -3.0130802533927805e+00 -2.8538037554466751e+00
      -1.8735137795782906e+00 -3.0702809656125676e+00
      -2.9753875545024502e+00 -2.5113632651346514e+00
      -4.3943406525514535e+00</_></weights></opencv_ml_ann_mlp>
</opencv_storage>
